1 100
sent_0 -0.042057 0.016637 0.028441 -0.005863 -0.029255 -0.007845 0.044726 -0.013638 -0.008597 0.005332 -0.029436 -0.031964 -0.001826 0.017591 0.017703 -0.020080 -0.006257 0.037892 -0.032094 -0.068002 0.007488 -0.025415 -0.018622 -0.021242 -0.009415 0.045602 0.013256 -0.022999 -0.001991 0.000764 0.000370 0.045063 -0.057950 -0.019998 -0.026143 0.030718 0.003720 0.025044 0.002825 -0.028386 -0.002133 0.020127 -0.023408 0.041886 -0.047133 -0.020051 -0.004672 -0.018281 0.017386 -0.018774 -0.040114 -0.018984 0.006738 -0.029279 -0.007074 -0.027833 0.009269 0.039954 -0.027329 0.023013 0.017494 -0.007727 0.018590 -0.010585 -0.036141 -0.027648 -0.026754 0.054621 -0.000454 -0.013572 -0.013734 -0.019209 0.007332 -0.022630 0.046657 -0.019751 -0.005855 0.004239 0.001571 -0.022484 -0.010116 -0.002501 0.002725 0.000389 0.010208 -0.008812 0.044637 0.050312 -0.003776 0.004142 -0.031412 -0.005130 -0.038077 0.012392 0.014137 0.016555 0.031600 -0.022378 0.007099 0.000254
